digraph Tree {
node [shape=box] ;
0 [label="pca_3_temp_mean_ws_120 <= -0.047\nentropy = 1.41\nsamples = 1171\nvalue = [115, 41, 15, 212, 788]\nclass = labelWalking"] ;
1 [label="acc_phone_y_freq_0.0_Hz_ws_40 <= -321.692\nentropy = 1.541\nsamples = 455\nvalue = [115, 0, 0, 204, 136]\nclass = labelStanding"] ;
0 -> 1 [labeldistance=2.5, labelangle=45, headlabel="True"] ;
2 [label="entropy = 0.0\nsamples = 204\nvalue = [0, 0, 0, 204, 0]\nclass = labelStanding"] ;
1 -> 2 ;
3 [label="mag_phone_y_temp_std_ws_120 <= 3.541\nentropy = 0.995\nsamples = 251\nvalue = [115, 0, 0, 0, 136]\nclass = labelWalking"] ;
1 -> 3 ;
4 [label="pca_3_temp_mean_ws_120 <= -0.109\nentropy = 0.571\nsamples = 111\nvalue = [15, 0, 0, 0, 96]\nclass = labelWalking"] ;
3 -> 4 ;
5 [label="entropy = 0.0\nsamples = 15\nvalue = [15, 0, 0, 0, 0]\nclass = labelBiking"] ;
4 -> 5 ;
6 [label="entropy = 0.0\nsamples = 96\nvalue = [0, 0, 0, 0, 96]\nclass = labelWalking"] ;
4 -> 6 ;
7 [label="mag_phone_y_temp_std_ws_120 <= 14.078\nentropy = 0.863\nsamples = 140\nvalue = [100, 0, 0, 0, 40]\nclass = labelBiking"] ;
3 -> 7 ;
8 [label="pca_3_temp_mean_ws_120 <= -0.085\nentropy = 0.734\nsamples = 126\nvalue = [100, 0, 0, 0, 26]\nclass = labelBiking"] ;
7 -> 8 ;
9 [label="acc_phone_y_freq_0.0_Hz_ws_40 <= -240.673\nentropy = 0.985\nsamples = 56\nvalue = [32, 0, 0, 0, 24]\nclass = labelBiking"] ;
8 -> 9 ;
10 [label="mag_phone_y_temp_std_ws_120 <= 3.609\nentropy = 0.414\nsamples = 24\nvalue = [2, 0, 0, 0, 22]\nclass = labelWalking"] ;
9 -> 10 ;
11 [label="entropy = 0.0\nsamples = 2\nvalue = [2, 0, 0, 0, 0]\nclass = labelBiking"] ;
10 -> 11 ;
12 [label="entropy = 0.0\nsamples = 22\nvalue = [0, 0, 0, 0, 22]\nclass = labelWalking"] ;
10 -> 12 ;
13 [label="acc_phone_y_freq_0.0_Hz_ws_40 <= -103.129\nentropy = 0.337\nsamples = 32\nvalue = [30, 0, 0, 0, 2]\nclass = labelBiking"] ;
9 -> 13 ;
14 [label="entropy = 0.0\nsamples = 30\nvalue = [30, 0, 0, 0, 0]\nclass = labelBiking"] ;
13 -> 14 ;
15 [label="entropy = 0.0\nsamples = 2\nvalue = [0, 0, 0, 0, 2]\nclass = labelWalking"] ;
13 -> 15 ;
16 [label="acc_phone_y_freq_0.0_Hz_ws_40 <= -102.28\nentropy = 0.187\nsamples = 70\nvalue = [68, 0, 0, 0, 2]\nclass = labelBiking"] ;
8 -> 16 ;
17 [label="entropy = 0.0\nsamples = 68\nvalue = [68, 0, 0, 0, 0]\nclass = labelBiking"] ;
16 -> 17 ;
18 [label="entropy = 0.0\nsamples = 2\nvalue = [0, 0, 0, 0, 2]\nclass = labelWalking"] ;
16 -> 18 ;
19 [label="entropy = 0.0\nsamples = 14\nvalue = [0, 0, 0, 0, 14]\nclass = labelWalking"] ;
7 -> 19 ;
20 [label="mag_phone_y_temp_std_ws_120 <= 14.647\nentropy = 0.549\nsamples = 716\nvalue = [0, 41, 15, 8, 652]\nclass = labelWalking"] ;
0 -> 20 [labeldistance=2.5, labelangle=-45, headlabel="False"] ;
21 [label="acc_phone_y_freq_0.0_Hz_ws_40 <= -401.852\nentropy = 0.28\nsamples = 597\nvalue = [0, 3, 11, 8, 575]\nclass = labelWalking"] ;
20 -> 21 ;
22 [label="pca_3_temp_mean_ws_120 <= 0.026\nentropy = 0.896\nsamples = 16\nvalue = [0, 0, 11, 0, 5]\nclass = labelSitting"] ;
21 -> 22 ;
23 [label="entropy = 0.0\nsamples = 9\nvalue = [0, 0, 9, 0, 0]\nclass = labelSitting"] ;
22 -> 23 ;
24 [label="pca_3_temp_mean_ws_120 <= 0.026\nentropy = 0.863\nsamples = 7\nvalue = [0, 0, 2, 0, 5]\nclass = labelWalking"] ;
22 -> 24 ;
25 [label="entropy = 0.0\nsamples = 5\nvalue = [0, 0, 0, 0, 5]\nclass = labelWalking"] ;
24 -> 25 ;
26 [label="entropy = 0.0\nsamples = 2\nvalue = [0, 0, 2, 0, 0]\nclass = labelSitting"] ;
24 -> 26 ;
27 [label="acc_phone_y_freq_0.0_Hz_ws_40 <= -382.665\nentropy = 0.151\nsamples = 581\nvalue = [0, 3, 0, 8, 570]\nclass = labelWalking"] ;
21 -> 27 ;
28 [label="entropy = 0.0\nsamples = 401\nvalue = [0, 0, 0, 0, 401]\nclass = labelWalking"] ;
27 -> 28 ;
29 [label="acc_phone_y_freq_0.0_Hz_ws_40 <= -381.493\nentropy = 0.384\nsamples = 180\nvalue = [0, 3, 0, 8, 169]\nclass = labelWalking"] ;
27 -> 29 ;
30 [label="acc_phone_y <= -9.379\nentropy = 0.961\nsamples = 13\nvalue = [0, 0, 0, 8, 5]\nclass = labelStanding"] ;
29 -> 30 ;
31 [label="entropy = 0.0\nsamples = 5\nvalue = [0, 0, 0, 0, 5]\nclass = labelWalking"] ;
30 -> 31 ;
32 [label="entropy = 0.0\nsamples = 8\nvalue = [0, 0, 0, 8, 0]\nclass = labelStanding"] ;
30 -> 32 ;
33 [label="acc_phone_y_freq_0.0_Hz_ws_40 <= -329.13\nentropy = 0.13\nsamples = 167\nvalue = [0, 3, 0, 0, 164]\nclass = labelWalking"] ;
29 -> 33 ;
34 [label="acc_phone_y_freq_0.0_Hz_ws_40 <= -378.996\nentropy = 0.414\nsamples = 36\nvalue = [0, 3, 0, 0, 33]\nclass = labelWalking"] ;
33 -> 34 ;
35 [label="entropy = 0.0\nsamples = 20\nvalue = [0, 0, 0, 0, 20]\nclass = labelWalking"] ;
34 -> 35 ;
36 [label="pca_3_temp_mean_ws_120 <= 0.069\nentropy = 0.696\nsamples = 16\nvalue = [0, 3, 0, 0, 13]\nclass = labelWalking"] ;
34 -> 36 ;
37 [label="pca_3_temp_mean_ws_120 <= 0.061\nentropy = 0.918\nsamples = 9\nvalue = [0, 3, 0, 0, 6]\nclass = labelWalking"] ;
36 -> 37 ;
38 [label="entropy = 0.0\nsamples = 6\nvalue = [0, 0, 0, 0, 6]\nclass = labelWalking"] ;
37 -> 38 ;
39 [label="entropy = 0.0\nsamples = 3\nvalue = [0, 3, 0, 0, 0]\nclass = labelRunning"] ;
37 -> 39 ;
40 [label="entropy = 0.0\nsamples = 7\nvalue = [0, 0, 0, 0, 7]\nclass = labelWalking"] ;
36 -> 40 ;
41 [label="entropy = 0.0\nsamples = 131\nvalue = [0, 0, 0, 0, 131]\nclass = labelWalking"] ;
33 -> 41 ;
42 [label="pca_3_temp_mean_ws_120 <= 0.055\nentropy = 1.097\nsamples = 119\nvalue = [0, 38, 4, 0, 77]\nclass = labelWalking"] ;
20 -> 42 ;
43 [label="acc_phone_y_freq_0.0_Hz_ws_40 <= -400.278\nentropy = 0.402\nsamples = 50\nvalue = [0, 0, 4, 0, 46]\nclass = labelWalking"] ;
42 -> 43 ;
44 [label="entropy = 0.0\nsamples = 4\nvalue = [0, 0, 4, 0, 0]\nclass = labelSitting"] ;
43 -> 44 ;
45 [label="entropy = 0.0\nsamples = 46\nvalue = [0, 0, 0, 0, 46]\nclass = labelWalking"] ;
43 -> 45 ;
46 [label="acc_phone_y_freq_0.0_Hz_ws_40 <= 15.889\nentropy = 0.993\nsamples = 69\nvalue = [0, 38, 0, 0, 31]\nclass = labelRunning"] ;
42 -> 46 ;
47 [label="pca_3_temp_mean_ws_120 <= 0.169\nentropy = 0.795\nsamples = 50\nvalue = [0, 38, 0, 0, 12]\nclass = labelRunning"] ;
46 -> 47 ;
48 [label="mag_phone_y_temp_std_ws_120 <= 24.577\nentropy = 0.971\nsamples = 20\nvalue = [0, 8, 0, 0, 12]\nclass = labelWalking"] ;
47 -> 48 ;
49 [label="acc_phone_y_freq_0.4_Hz_ws_40 <= 7.74\nentropy = 0.592\nsamples = 14\nvalue = [0, 2, 0, 0, 12]\nclass = labelWalking"] ;
48 -> 49 ;
50 [label="entropy = 0.0\nsamples = 12\nvalue = [0, 0, 0, 0, 12]\nclass = labelWalking"] ;
49 -> 50 ;
51 [label="entropy = 0.0\nsamples = 2\nvalue = [0, 2, 0, 0, 0]\nclass = labelRunning"] ;
49 -> 51 ;
52 [label="entropy = 0.0\nsamples = 6\nvalue = [0, 6, 0, 0, 0]\nclass = labelRunning"] ;
48 -> 52 ;
53 [label="entropy = 0.0\nsamples = 30\nvalue = [0, 30, 0, 0, 0]\nclass = labelRunning"] ;
47 -> 53 ;
54 [label="entropy = 0.0\nsamples = 19\nvalue = [0, 0, 0, 0, 19]\nclass = labelWalking"] ;
46 -> 54 ;
}